{
  "config": {
    "input_features": 8,
    "hidden_neurons": 16,
    "output_neurons": 4,
    "tau": 1.0,
    "leak_rate": 0.1,
    "adaptation_rate": 0.01
  },
  "weights": {
    "input_layer": {
      "weights": [
        [
          -0.11164820798705857,
          -0.11085005144590372,
          -0.37764793651541545,
          -0.1879605291042005,
          -0.16088481938572408,
          0.14600079803671517,
          -0.33471143041758356,
          -0.1112278202486375
        ],
        [
          0.10314936098621065,
          -0.48511164800303963,
          0.1855494710635046,
          -0.22251599031491284,
          0.38346115354895066,
          0.016389890223671724,
          0.06083451137687431,
          -0.18649516157994958
        ],
        [
          -0.17316559562170153,
          -0.19100924132669592,
          0.3404519543433184,
          -0.08300241770337766,
          0.09886173684457077,
          0.21571687779207976,
          -0.7428922223374927,
          0.009905291631883108
        ],
        [
          0.25259406514303895,
          -0.16678811201317412,
          0.039729473463911355,
          -0.2116292302365187,
          0.03748056417768354,
          -0.5345250917107103,
          0.3258763688366204,
          0.27647299710004536
        ],
        [
          0.19041205457471938,
          -0.5321460332450556,
          -0.22132189466141156,
          -0.5604451962229033,
          -0.06298476894819945,
          0.597403365657011,
          0.277082744954934,
          -0.5027753092237103
        ],
        [
          -0.19403720053608478,
          -0.331280188659367,
          0.17752982148967492,
          -0.15431800314852934,
          -0.22449576948395084,
          -0.274895570633381,
          0.01845780615147797,
          -0.02400181896460036
        ],
        [
          0.30989853101497805,
          -0.2296982059543217,
          -0.07809528804030594,
          0.3178212142758606,
          -0.2779671830042242,
          0.1932074780436886,
          0.07094539119943237,
          -0.39784121610618356
        ],
        [
          0.28297335199730533,
          -0.24026798204632208,
          0.09024480714198233,
          -0.41684722158844345,
          0.029622672163414247,
          -0.11436392289883485,
          -0.1603291150454654,
          0.08415468009588768
        ],
        [
          -0.179638737732036,
          -0.35728088061978514,
          0.18310705601881208,
          0.3679216591295929,
          -0.3420925183632963,
          -0.5215546379930166,
          -0.2956543355147391,
          -0.5075172723104194
        ],
        [
          -0.5059813249981459,
          -0.15918105614166625,
          0.0955640420830764,
          -0.08970583956914345,
          -0.2009361049996023,
          0.21173422850848844,
          0.44680273224806805,
          0.3849948422890905
        ],
        [
          -0.07951215250534335,
          -0.257064761434904,
          0.029501768927723146,
          -0.20031434461086625,
          0.08226752661882407,
          0.23618431732226025,
          -0.36667916171814907,
          -0.19207352854074822
        ],
        [
          0.14611456511354315,
          0.28040010542581806,
          0.0546658270779578,
          -0.01753428083014532,
          -0.07921553716754541,
          -0.19260586701005916,
          -0.2733468445878567,
          -0.2712708259004947
        ],
        [
          -0.04924406937348992,
          -0.1823094462868958,
          -0.2703896390209103,
          -0.4452393879844607,
          -0.8456878865598438,
          -0.05821454364404488,
          -0.13052580676080114,
          0.3817154887547033
        ],
        [
          0.01888980953567775,
          -0.14419829128388012,
          -0.14412367157922373,
          0.298436588940452,
          -0.43051742039745045,
          -0.4024557837717126,
          -0.05502340187899047,
          0.10260752782830942
        ],
        [
          -0.5225140387862792,
          -0.3921842125806033,
          -0.004451166642319765,
          -0.11711277104780689,
          -0.3010130071743638,
          -0.13254325004131962,
          0.2961134674211872,
          -0.25360069660109497
        ],
        [
          0.1804141372147357,
          0.3946748578582708,
          0.36660778954290374,
          -0.013571795285300147,
          0.27001285487037335,
          0.34701868738779185,
          0.12416605792444284,
          0.14928736180888752
        ]
      ],
      "biases": [
        0.0,
        0.0,
        0.0,
        0.0,
        0.0,
        0.0,
        0.0,
        0.0,
        0.0,
        0.0,
        0.0,
        0.0,
        0.0,
        0.0,
        0.0,
        0.0
      ],
      "recurrent_weights": [
        [
          0.0,
          0.08733535044190605,
          -0.10117374412566507,
          -0.1484587103598273,
          0.20332251686736022,
          0.1580156333078474,
          0.11053680396502144,
          -0.024758565265781008,
          0.0028127416689334695,
          0.0656928905774414,
          0.07245971433710954,
          -0.15332556784843332,
          0.020596441639940996,
          -0.011063844299097222,
          -0.050158953616228553,
          0.06743259291244137
        ],
        [
          -0.30675131590926946,
          0.0,
          0.10858151522259465,
          -0.0041380436918050465,
          0.01848824800692662,
          0.03938044898527142,
          -0.013491066922296669,
          -0.09307842475612003,
          -0.059611724375924637,
          -0.12299781032101115,
          -0.07739144974923662,
          -0.04575567568573466,
          0.21930794699162148,
          -0.05901353272212393,
          -0.2009825655350737,
          0.13173459784275104
        ],
        [
          0.07701608254051218,
          -0.16996265252450127,
          0.0,
          -0.037168556328374326,
          0.06274952228839467,
          -0.06697050523237708,
          -0.17461972940284548,
          0.03657722756495165,
          0.012887958566981668,
          -0.06749721677379981,
          0.033743720637123435,
          -0.030730010197141944,
          0.05289017287358742,
          -0.17918579897325362,
          -0.004739369696434654,
          -0.16707634311491057
        ],
        [
          -0.028581564332322975,
          -0.02755432831597257,
          -0.10354460758575626,
          0.0,
          0.0020565620330147386,
          0.01301865270833634,
          0.05637235402026978,
          -0.19287874680418488,
          0.03231081838976358,
          -0.06106812005972473,
          -0.08000203102030658,
          -0.21582717119498696,
          0.055515596961793125,
          -0.02872102198442275,
          0.087682289991794,
          -0.07018269999209892
        ],
        [
          -0.05402319268708603,
          0.15570659829741082,
          0.08204058968291494,
          0.1011571094970054,
          0.0,
          0.025589947027309108,
          0.025590886969278626,
          -0.05386717519947583,
          -0.0733149966369832,
          0.03441644264161337,
          -0.0965738882332704,
          0.0352840024232432,
          0.00920696366922413,
          -0.10281100869945092,
          -0.04118192154462931,
          0.006751898039331044
        ],
        [
          0.09234464442082603,
          -0.06851088580067269,
          0.3438883773695121,
          -0.08932951425581932,
          0.0017758854079088272,
          0.0,
          -0.051649544962343474,
          0.09307727003243516,
          -0.07139374720058,
          -0.02424933231288691,
          0.14471799604853758,
          -0.010013012727607865,
          -0.02930228371935267,
          0.1711429135878317,
          0.0058524739864267575,
          0.08182486897653975
        ],
        [
          -0.07742992966806585,
          -0.1579596721718534,
          0.0071427739822714975,
          0.015347690165820455,
          0.15306535255779863,
          -0.14977805805533745,
          0.0,
          -0.21938474482779152,
          0.09504927357108996,
          0.1964586541084441,
          -0.13439173801477514,
          0.16391924085646922,
          -0.18134592141575212,
          -0.031563698687885514,
          -0.03594816970931371,
          -0.004120801710451129
        ],
        [
          0.020552246530769352,
          -0.10808246361745032,
          0.15489590906171594,
          0.001222195648045717,
          0.10755492274525187,
          -0.14212959847305537,
          0.14030109549450173,
          0.0,
          0.011696635210716913,
          0.014983372927728606,
          0.03390147130255965,
          0.09641565822962209,
          -0.07529557536369777,
          -0.0760580190232516,
          -0.18620363856957034,
          0.04786796888989956
        ],
        [
          0.22427303150882955,
          0.13812885324970467,
          0.006604118174363089,
          -0.18207223138845272,
          -0.04239390450817899,
          0.023903017138165145,
          -0.07147341234114594,
          0.01676650607912568,
          0.0,
          0.04134174014599451,
          0.18736957298569568,
          0.05120836548432886,
          -0.06681321240371461,
          0.06616090756885937,
          -0.04797963769090821,
          0.026111125621095566
        ],
        [
          -0.1037482453044477,
          0.04586522730462669,
          0.09306402035551499,
          0.033028789261463555,
          -0.0016328725435019295,
          -0.0689082938711675,
          0.15206053992669602,
          0.053436348918518506,
          0.16595326453067216,
          0.0,
          -0.0063333826519988675,
          0.11813235977868311,
          0.07423223632451258,
          -0.17035355066380178,
          0.006860515143062434,
          -0.14096257837559775
        ],
        [
          0.06439362004733981,
          -0.12822800344708174,
          -0.008678792093412933,
          -0.12362491459892794,
          -0.05611503606055856,
          0.00827689908601087,
          0.03863452244081845,
          -0.20679920953091968,
          0.056571521763592925,
          0.05959996336144494,
          0.0,
          0.12930764271741554,
          0.00443416417990202,
          -0.045219476543477986,
          0.08315421275088854,
          0.07773179830569255
        ],
        [
          0.09683321011893506,
          -0.05673087127042725,
          0.3188611609613912,
          0.11514688953872915,
          -0.03152311508407388,
          0.05477563125550705,
          -0.22721598434417958,
          -0.02729767791903136,
          0.04897003867214137,
          0.1673817066922092,
          0.018948052520264252,
          0.0,
          0.017002316749347893,
          0.05702677423296684,
          -0.020720708000725008,
          -0.07214447755785779
        ],
        [
          -0.15447375464684998,
          0.08387709939619342,
          -0.040845885848114535,
          0.23801256849403193,
          -0.12458141032581815,
          0.10474705687572501,
          -0.02049432370290262,
          -0.004564000421431581,
          -0.09882970446413385,
          0.0007491569669396566,
          0.09598165583487996,
          0.038298281835229785,
          0.0,
          -0.1782324847992377,
          -0.02682973259923275,
          -0.06638865299507608
        ],
        [
          0.02667834051277357,
          0.0849780115762164,
          -0.010527151828863476,
          -0.05509133873477162,
          -0.08760134997863073,
          -0.060394918911460406,
          -0.1529323158115815,
          -0.1309186903422392,
          -0.19270445554823928,
          0.06646682826064859,
          0.0029897878328352155,
          -0.08923018952872318,
          0.05352421543502664,
          0.0,
          0.14478327243474007,
          0.007971727395699338
        ],
        [
          -0.02845275414666837,
          -0.0076321403539338405,
          0.035259854662587464,
          0.05259602308944614,
          -0.13779722968748737,
          0.15057012321558252,
          -0.04855170379476883,
          -0.0656128370985729,
          0.06577669225149217,
          0.09881103330763294,
          -0.07217311391418658,
          0.00598836720187643,
          -0.03439424427318135,
          -0.07311753133477719,
          0.0,
          0.1277803031160095
        ],
        [
          0.1278919636037673,
          -0.02715518768121975,
          0.0899958699489389,
          0.03770617792982342,
          -0.1484698038434244,
          -0.0679017059948467,
          0.04689556335041162,
          0.11930908136017536,
          0.042571579171217934,
          0.027957337040645854,
          -0.005393720459192529,
          0.06684339265500566,
          0.17952316822060854,
          -0.06446602163574411,
          0.0752459242499809,
          0.0
        ]
      ]
    },
    "hidden_layer": {
      "weights": [
        [
          0.2709079809452636,
          -0.03333446433444905,
          -0.1884199433686886,
          0.30464145036061635,
          0.1804451523870987,
          0.6697764950949479,
          0.19172453624102906,
          -0.16956194723328596,
          0.0018326966310827175,
          0.03331489037701978,
          0.10976614408062,
          0.059581654765196,
          0.5659647262829433,
          0.25904788145960356,
          0.09633516737960622,
          0.27518584607110924
        ],
        [
          0.36649383409065744,
          0.38049549321547776,
          -0.029063238310575515,
          -0.03193306434015558,
          0.09548325622301929,
          0.10123876350864484,
          -0.20556466019180616,
          0.21356163387772853,
          0.1248303468131284,
          0.14880865296050166,
          0.09420512826296702,
          -0.047332627062787375,
          -0.6119296372275254,
          -0.03398777715019527,
          0.44462091407028687,
          0.12776401947719795
        ],
        [
          -0.23922631156331756,
          -0.1690578198864948,
          -0.07908907769671099,
          0.09673381316992426,
          -0.17694645117135965,
          0.08481558238112594,
          0.05752911801626845,
          0.30314641912530793,
          0.09306525944591104,
          -0.0039793618088700125,
          0.28391126209262946,
          0.15385434226727088,
          0.606579906515143,
          -0.12645862380685283,
          -0.016400151807156312,
          0.09418745216848658
        ],
        [
          0.10192299950370351,
          -0.3118645154940972,
          0.2120015198573949,
          -0.17878813892167336,
          -0.075821215005289,
          -0.012127662037641438,
          -0.0776413067564184,
          0.5336340901228124,
          -0.24563391562973247,
          0.024003230492274156,
          -0.29703135576531525,
          -0.03161562245246952,
          0.09131603677291475,
          -0.10036122923075784,
          -0.1746803404811134,
          0.07794341658705496
        ],
        [
          0.11650523304758044,
          -0.351858461243868,
          0.2048894990385532,
          -0.156513964451236,
          -0.09459338363825993,
          -0.20920815962197628,
          -0.0503210570434069,
          -0.37704792091354333,
          -0.26788476570525693,
          -0.3507237643061457,
          -0.3423974761370744,
          0.15861499430307946,
          -0.2667295381615005,
          0.12046573256820446,
          0.3587020037932869,
          -0.28634659844385235
        ],
        [
          -0.09149894020784632,
          -0.050534430395262606,
          0.2802257623975734,
          0.10543880783632865,
          0.012383862884001184,
          -0.31180987115890624,
          0.4651833581955133,
          0.24638963300463998,
          0.00042234868249118836,
          -0.4351736032687859,
          -0.19456535554541396,
          0.1296743158514841,
          0.6893287902916865,
          -0.24015478462644424,
          -0.03827860798831731,
          0.3603534148277796
        ],
        [
          -0.17527337968478776,
          -0.0016401616671259643,
          0.17758242211712338,
          0.21040605910600965,
          -0.40870859980277197,
          0.04108834404669027,
          -0.0959913578864668,
          0.05183584442691654,
          -0.11796056003346639,
          -0.18093840002884704,
          0.6285871211613333,
          -0.0843415577255689,
          0.22191845107409283,
          -0.1006308851811994,
          0.2943778423074757,
          0.26965595280547433
        ],
        [
          0.48796581322195015,
          -0.14664016135741526,
          0.14411857033589587,
          0.6157476876687704,
          -0.3766135677107054,
          0.18991055645140084,
          0.25156516658540573,
          -0.07695389965138516,
          0.2165194030177965,
          -0.36961316310975884,
          0.5527811123704464,
          -0.04029511539546703,
          0.028099769684835782,
          0.08509696534662352,
          -0.02800114984923795,
          0.11463166724199803
        ],
        [
          0.07535517558347019,
          0.008096641700689994,
          0.11618469897736715,
          -0.19426081244240181,
          0.26610722156899486,
          -0.33227462081459025,
          -0.25401905838694405,
          -0.2514570692560012,
          0.44402815864207706,
          0.22875138573007506,
          -0.22794832354538114,
          0.40524827919002837,
          0.12086660157250259,
          0.1348417353126267,
          -0.12515381939422046,
          0.09877489574451177
        ],
        [
          -0.052166904493664255,
          0.37467364433350325,
          0.1671137963682967,
          0.19166301530169946,
          -0.03962790191188949,
          -0.12811619421520523,
          0.49078953315065227,
          -0.06511011757110029,
          -0.23495004574772413,
          0.5360479587746314,
          0.21973340621484044,
          0.2891513194075531,
          -0.11339645394239614,
          0.49846393396588695,
          -0.08119981709317234,
          0.13976344715516661
        ],
        [
          0.39575096508301255,
          0.17108767246889692,
          0.21736595620640967,
          -0.17922485630731166,
          -0.10529749425289413,
          0.7051615037901622,
          0.060335450964084256,
          -0.06864541126872184,
          0.4374741626921498,
          0.5482257986268689,
          -0.1989672986275303,
          0.18627595777725545,
          0.5734355943476386,
          0.005952707538987144,
          0.30255067823723836,
          0.07842636907440557
        ],
        [
          -0.0766474791392706,
          -0.032980682924134024,
          0.13249909019743478,
          -0.057176404015966194,
          -0.18122535523023384,
          0.09747369621869466,
          0.4325231737978262,
          -0.13483707541136894,
          -0.03859561712306881,
          -0.11765664040999413,
          0.3819962088330966,
          0.4768784837045658,
          0.18083624738518977,
          -0.6088552877094057,
          -0.3012491568571307,
          0.036433244035533954
        ],
        [
          -0.027287256657251634,
          0.1113845057811774,
          0.1445294810940967,
          -0.30483346894811253,
          -0.040703743391312,
          -0.29403096799261125,
          0.00971926227204647,
          -0.1801090588860258,
          -0.189203571305046,
          -0.08126869586480505,
          -0.08871924511064065,
          0.11824384104101815,
          -0.35604340511413407,
          0.22809428750457938,
          -0.1373658525731653,
          -0.10231220776854079
        ],
        [
          0.35003434133510486,
          0.038615527101279704,
          0.2081824855286041,
          -0.09332468208575911,
          -0.03074515983844477,
          -0.08997541412159431,
          -0.17729667965670082,
          -0.29656450082460406,
          -0.028046014951269176,
          -0.34004312546445964,
          -0.26853021320004317,
          0.13157860157667514,
          0.4026756774456418,
          -0.07206893177213625,
          -0.035358731649021764,
          -0.04889711391891032
        ],
        [
          0.16644408257960214,
          0.33653053296253044,
          0.010718767012677457,
          -0.4503980323559269,
          0.480918599616255,
          0.527781748518822,
          0.6099999594114862,
          -0.31875857434680605,
          0.26612477704338144,
          0.2531309983009725,
          -0.3986984302415816,
          0.11537900403622933,
          -0.0943336679950143,
          0.2662797962605805,
          -0.23808401897274387,
          0.0923762926896812
        ],
        [
          -0.09540066062437122,
          0.17577166222022786,
          0.49710528776500157,
          0.22643089100460947,
          -0.15736328919883633,
          0.32821685750463175,
          0.6446083162693863,
          0.09408203583329242,
          0.1899269240246518,
          0.043600178855177474,
          -0.08967527766228252,
          0.22222922591661057,
          0.30460705921525144,
          0.1899863083987949,
          0.1393878622813478,
          -0.03246578868180635
        ]
      ],
      "biases": [
        0.0,
        0.0,
        0.0,
        0.0,
        0.0,
        0.0,
        0.0,
        0.0,
        0.0,
        0.0,
        0.0,
        0.0,
        0.0,
        0.0,
        0.0,
        0.0
      ],
      "recurrent_weights": [
        [
          0.0,
          -0.1019115968895144,
          -0.046846593950831766,
          0.03425431836280699,
          -0.04533833030781162,
          -0.03642018517711118,
          -0.027694104977900175,
          -0.05436067610816295,
          0.18610606648733632,
          0.14679659667782602,
          0.07877016460193592,
          0.06286474699480599,
          -0.12203138526286304,
          -0.04091034288465334,
          0.10061470318020951,
          -0.040732804283452266
        ],
        [
          -0.04332964510814965,
          0.0,
          0.034541885243099986,
          0.044313809527908005,
          0.11461505620081708,
          -0.10476752193871625,
          -0.039641935109100836,
          -0.019806015101381517,
          0.05083140279279668,
          -0.045402564599178685,
          -0.00709265346042423,
          0.12143667599378781,
          -0.12506809077486608,
          0.037662981052455996,
          0.0666323667910796,
          0.20097048646971497
        ],
        [
          0.11400165895482849,
          0.06311995062684209,
          0.0,
          0.12549873099846262,
          -0.03247716885549583,
          -0.10787063657717871,
          -0.006491180534894239,
          0.016740638332259125,
          -0.0011793644634034866,
          -0.015533908263663316,
          0.005744211233795481,
          0.02193430886644484,
          -0.06594080760651157,
          -0.07566894340981983,
          -0.03921712058004214,
          0.0066147185232559545
        ],
        [
          0.20415799975063373,
          0.28022123706851015,
          -0.05336223673596237,
          0.0,
          0.025922323507825574,
          -0.00905444473021997,
          -0.181399000499345,
          0.09484272486257074,
          0.048317906777963035,
          -0.19198996568443946,
          -0.03345345466396472,
          -0.054699211738509126,
          0.04504246723179222,
          -0.07556625151410229,
          -0.04514491463743636,
          0.060081746325640784
        ],
        [
          -0.14912333385737317,
          0.08496948321266078,
          -0.02865720870114983,
          -0.21627787454222325,
          0.0,
          0.051231723831747615,
          0.09246866183158242,
          -0.17926084600762937,
          -0.025221016513572114,
          -0.013627464191432716,
          -0.039785437403600285,
          0.03530306576122504,
          -0.1647291445544494,
          -0.19448676478278729,
          0.054566367389019946,
          0.05249516130569294
        ],
        [
          0.07862347734490276,
          0.04682143397913391,
          0.11050776378048266,
          0.19029612767297693,
          0.11176092496227988,
          0.0,
          -0.045335152671403214,
          -0.050740711202724366,
          0.10778062868771661,
          -0.1780237197074748,
          -0.20277269378505314,
          0.010334743938860927,
          -0.11098586558917306,
          0.000789438341481096,
          -0.07402712140069258,
          0.19253966735422767
        ],
        [
          0.014166952545004727,
          -0.10328772633533972,
          0.003787158162480752,
          0.10173932835004657,
          -0.07965445677195775,
          -0.03763506567069353,
          0.0,
          0.16090386411336932,
          -0.03743024228600999,
          0.07838879908314578,
          0.05692833924531852,
          -0.11217333730662618,
          -0.019360217939689436,
          -0.12076215819363223,
          -0.08400009020138563,
          -0.005888626873472319
        ],
        [
          0.1341196512198314,
          -0.2287615522351656,
          -0.15704350565630487,
          -0.04486829046895069,
          -0.12303699181727,
          0.07218713872652587,
          -0.003184008396567506,
          0.0,
          0.011040567421564878,
          -0.05071631188889863,
          -0.014842760031324655,
          0.04282851620910844,
          -0.07891848694862391,
          -0.05554302996576541,
          -0.04681261566952086,
          -0.0363464718383353
        ],
        [
          0.109788618182816,
          -0.06004338827846914,
          -0.057931066273095924,
          0.05452059117060298,
          0.08862621697483211,
          -0.021459912785191142,
          0.14245943052081553,
          0.057065540782712136,
          0.0,
          -0.03443447982445162,
          -0.009788517650055006,
          -0.11504414291273402,
          0.0639740711097354,
          0.10898611035666438,
          -0.04967854496231566,
          -0.04696141609351953
        ],
        [
          -0.07658051973882345,
          0.2260291584665306,
          0.08076438450645067,
          -0.08930204369704181,
          -0.03525732748681807,
          -0.09185108773119058,
          0.17506738691290696,
          0.0010952423080006822,
          0.1029789441105959,
          0.0,
          -0.05697032752873743,
          0.14386502863011083,
          -0.00503939970174346,
          -0.005529402642583794,
          -0.05883565312469198,
          -0.02388282623933729
        ],
        [
          -0.19388756545805436,
          0.2314108590255135,
          0.005019879434207708,
          -0.045789338118941085,
          0.003128558371507488,
          0.06427539387494419,
          -0.07680002469122295,
          0.031467253752340184,
          0.026817866663454218,
          -0.014232559364685602,
          0.0,
          -0.026078772353604014,
          -0.0492062118717895,
          0.08994291621823206,
          -0.06392748016020942,
          -0.12717124072016467
        ],
        [
          -0.08065247629539618,
          0.042590479761995134,
          0.07509379649177646,
          -0.15801201574004445,
          -2.4826455487669923e-05,
          -0.03489578565783822,
          0.0222960437411739,
          -0.048488166023183656,
          -0.11780184176253175,
          0.10925789475252029,
          0.017928169116679753,
          0.0,
          0.07092349765289234,
          -0.03139809277742401,
          0.05768469055499614,
          -0.04362031315064253
        ],
        [
          0.10344252417309625,
          -0.020725511972383585,
          -0.09612257027004424,
          0.049535690164321994,
          -0.010714602141302343,
          -0.12750288125777368,
          -0.004062330851109002,
          -0.1425268706626029,
          -0.003497866134870724,
          -0.10117412424231234,
          -0.039850750403508856,
          0.14066428742697282,
          0.0,
          -0.06041120340705724,
          0.11645497715541703,
          0.07378539395992689
        ],
        [
          -0.10779240617555182,
          -0.02673981974237788,
          0.06524070259139528,
          0.039852542259428844,
          0.06759209721449452,
          -0.12307476677995333,
          -0.13952053447111143,
          -0.15266489991462057,
          -0.07934167674132048,
          -0.08909117344700561,
          -0.16434851925283,
          0.07275806423606443,
          -0.0012937480777545952,
          0.0,
          0.0410308332932657,
          0.10331664924050941
        ],
        [
          0.08876164954790884,
          -0.0320573616896998,
          -0.17319353408474522,
          0.19369947571441407,
          0.05540650598758062,
          0.0062920485199771965,
          -0.09890949739558115,
          0.15514145103364516,
          -0.07060294036559404,
          -0.09501733353920278,
          -0.002303116416124047,
          0.010024824403559715,
          0.07379328032360549,
          -0.20174487031418098,
          0.0,
          0.0733420211171241
        ],
        [
          0.0859816427194073,
          0.017475718966461173,
          -0.05242428162022394,
          0.12284069156995255,
          -0.12615420246004194,
          0.1270783787169177,
          0.1014096749762057,
          -0.08808783520810363,
          0.029170016159501835,
          -0.052445199999580555,
          -0.002100387871624829,
          -0.05526425793123028,
          0.036859560310082834,
          0.09944441187569446,
          -0.0037439664910332475,
          0.0
        ]
      ]
    },
    "output_layer": {
      "weights": [
        [
          0.021932363929773616,
          -0.5505450168261978,
          0.20090835219265266,
          -0.05114554540081115,
          -0.24979823275627863,
          -0.19900966273767523,
          -0.3510433902920657,
          -0.08130941866002694,
          -0.1049402285815056,
          -0.013385177526571177,
          0.5133056897180073,
          -0.3982781871002342,
          -0.7447777295828919,
          -0.12614033319964385,
          -0.22365769051973736,
          0.030168435978753003
        ],
        [
          0.3874959957956153,
          -0.0028386338839835024,
          0.04266469712607873,
          -0.26356054637430176,
          -0.08713261773798636,
          -0.27479968448853737,
          0.3181751735982439,
          -0.10426464550557106,
          -0.10615546790809295,
          -0.04636568550597039,
          0.2899785766186815,
          0.7852254810706986,
          -0.06639157202840396,
          0.20131173137660885,
          0.14325832404752065,
          0.2570126626226326
        ],
        [
          0.5267236157827088,
          -0.18770211611405493,
          -0.1583149911238845,
          0.13406593906720984,
          -0.305049569292235,
          -0.1797802880281837,
          -0.08486514721832857,
          -0.25624782616618574,
          0.3317139481102621,
          0.20617659566850524,
          0.1643418596845665,
          0.3354123699055067,
          -0.5381764709279448,
          -0.5434763980828333,
          0.19171505849730078,
          0.2066539037608273
        ],
        [
          -0.04551329726536662,
          0.2697562351401313,
          0.2815670541392038,
          0.1657326569090944,
          0.5557303672187582,
          -0.6778982932812976,
          0.13333760118290414,
          0.07893749852137992,
          -0.1135409080688219,
          -0.525744908046248,
          0.35435647831432954,
          -0.30535497340115325,
          -0.6612134976172476,
          -0.3323121505787314,
          -0.22599613647904826,
          -0.3116417449385858
        ]
      ],
      "biases": [
        0.0,
        0.0,
        0.0,
        0.0
      ],
      "recurrent_weights": [
        [
          0.0,
          0.11816216684625805,
          -0.0331614078147359,
          0.07615402879508748
        ],
        [
          -0.11394056117170721,
          0.0,
          -0.1326367852748951,
          -0.09557242544690514
        ],
        [
          0.24441559533185098,
          -0.03333753306958559,
          0.0,
          -0.021767189117085944
        ],
        [
          0.08976894070947311,
          -0.035147952769142295,
          0.14484554845464018,
          0.0
        ]
      ]
    }
  },
  "normalization": {
    "input_mean": [
      0.0,
      0.0,
      0.0,
      0.0,
      0.0,
      0.0,
      0.0,
      0.0
    ],
    "input_std": [
      1.0,
      1.0,
      1.0,
      1.0,
      1.0,
      1.0,
      1.0,
      1.0
    ]
  },
  "performance_history": []
}